#ifndef MAGICWAND_PARAMETERS_H
#define MAGICWAND_PARAMETERS_H

#include <ap_fixed.h>
#include "model_functions.h"

float firstKernel[8][4][3] =
        {{{-0.12031957507133484, -0.005763742607086897, 0.19427894055843353},
          {-0.010197123512625694, -0.07892122864723206, 0.0848962590098381},
          {-0.028356412425637245, 0.02023005113005638, 0.04165958613157272},
          {0.07160826027393341, -0.08538796752691269, -0.10647381097078323}},

         {{0.030894596129655838, -0.16075335443019867, -0.5106980800628662},
          {0.11889418959617615, -0.15359793603420258, -0.05979808792471886},
          {-0.21486389636993408, 0.19671747088432312, 0.04332316294312477},
          {-0.17712676525115967, -0.21227455139160156, -0.35944581031799316}},

         {{0.1570814549922943, -0.057136960327625275, 0.13255438208580017},
          {0.08315648883581161, 0.005442050285637379, 0.09490339457988739},
          {0.13865159451961517, -0.1435479074716568, -0.032172948122024536},
          {0.07025080174207687, -0.09379106760025024, -0.20106001198291779}},

         {{0.10838392376899719, 0.21982979774475098, -0.18122248351573944},
          {0.1645917296409607, -0.08072198927402496, -0.22415584325790405},
          {0.0803307592868805, -0.12651053071022034, -0.08566480129957199},
          {0.19041723012924194, -0.08326514065265656, -0.2991211712360382}},

         {{-0.2553713023662567, -0.14871777594089508, 0.25950855016708374},
          {-0.10679174959659576, -0.04608575254678726, 0.19606395065784454},
          {0.12941092252731323, -0.02814422734081745, -0.16740301251411438},
          {-0.015473904088139534, 0.05573485419154167, -0.40085238218307495}},

         {{-0.045077912509441376, -0.26570016145706177, -0.06651380658149719},
          {-0.08891786634922028, -0.05795465037226677, 0.03592843562364578},
          {0.022763269022107124, -0.08749347925186157, -0.1560135781764984},
          {0.026466477662324905, -0.18959631025791168, -0.05051233246922493}},

         {{0.07873740047216415, 0.05015580728650093, -0.09531140327453613},
          {0.08656616508960724, -0.12853801250457764, 0.035971447825431824},
          {0.13247184455394745, -0.07723065465688705, -0.1726044863462448},
          {-0.011735418811440468, -0.28742796182632446, 0.12283297628164291}},

         {{-0.07055985927581787, -0.07729026675224304, -0.3585514724254608},
          {0.03822706639766693, -0.042998552322387695, -0.009509794414043427},
          {0.11225412040948868, 0.03478994593024254, 0.15851399302482605},
          {-0.000018814120267052203, 0.12550881505012512, 0.296796977519989}}};

fix1_t firstKernel_f[8][4][3] =
        {{{-0.12031957507133484, -0.005763742607086897, 0.19427894055843353},
          {-0.010197123512625694, -0.07892122864723206, 0.0848962590098381},
          {-0.028356412425637245, 0.02023005113005638, 0.04165958613157272},
          {0.07160826027393341, -0.08538796752691269, -0.10647381097078323}},

         {{0.030894596129655838, -0.16075335443019867, -0.5106980800628662},
          {0.11889418959617615, -0.15359793603420258, -0.05979808792471886},
          {-0.21486389636993408, 0.19671747088432312, 0.04332316294312477},
          {-0.17712676525115967, -0.21227455139160156, -0.35944581031799316}},

         {{0.1570814549922943, -0.057136960327625275, 0.13255438208580017},
          {0.08315648883581161, 0.005442050285637379, 0.09490339457988739},
          {0.13865159451961517, -0.1435479074716568, -0.032172948122024536},
          {0.07025080174207687, -0.09379106760025024, -0.20106001198291779}},

         {{0.10838392376899719, 0.21982979774475098, -0.18122248351573944},
          {0.1645917296409607, -0.08072198927402496, -0.22415584325790405},
          {0.0803307592868805, -0.12651053071022034, -0.08566480129957199},
          {0.19041723012924194, -0.08326514065265656, -0.2991211712360382}},

         {{-0.2553713023662567, -0.14871777594089508, 0.25950855016708374},
          {-0.10679174959659576, -0.04608575254678726, 0.19606395065784454},
          {0.12941092252731323, -0.02814422734081745, -0.16740301251411438},
          {-0.015473904088139534, 0.05573485419154167, -0.40085238218307495}},

         {{-0.045077912509441376, -0.26570016145706177, -0.06651380658149719},
          {-0.08891786634922028, -0.05795465037226677, 0.03592843562364578},
          {0.022763269022107124, -0.08749347925186157, -0.1560135781764984},
          {0.026466477662324905, -0.18959631025791168, -0.05051233246922493}},

         {{0.07873740047216415, 0.05015580728650093, -0.09531140327453613},
          {0.08656616508960724, -0.12853801250457764, 0.035971447825431824},
          {0.13247184455394745, -0.07723065465688705, -0.1726044863462448},
          {-0.011735418811440468, -0.28742796182632446, 0.12283297628164291}},

         {{-0.07055985927581787, -0.07729026675224304, -0.3585514724254608},
          {0.03822706639766693, -0.042998552322387695, -0.009509794414043427},
          {0.11225412040948868, 0.03478994593024254, 0.15851399302482605},
          {-0.000018814120267052203, 0.12550881505012512, 0.296796977519989}}};

#endif //MAGICWAND_PARAMETERS_H
